digraph Tree {
node [shape=box, style="filled, rounded", color="black", fontname=helvetica] ;
edge [fontname=helvetica] ;
0 [label="X[3] <= 0.8\ngini = 0.665\nsamples = 112\nvalue = [37, 34, 41]", fillcolor="#f8f4fe"] ;
1 [label="gini = 0.0\nsamples = 37\nvalue = [37, 0, 0]", fillcolor="#e58139"] ;
0 -> 1 [labeldistance=2.5, labelangle=45, headlabel="True"] ;
2 [label="X[2] <= 4.95\ngini = 0.496\nsamples = 75\nvalue = [0, 34, 41]", fillcolor="#e9ddfb"] ;
0 -> 2 [labeldistance=2.5, labelangle=-45, headlabel="False"] ;
3 [label="X[3] <= 1.65\ngini = 0.153\nsamples = 36\nvalue = [0, 33, 3]", fillcolor="#4be78c"] ;
2 -> 3 ;
4 [label="gini = 0.0\nsamples = 32\nvalue = [0, 32, 0]", fillcolor="#39e581"] ;
3 -> 4 ;
5 [label="X[1] <= 3.1\ngini = 0.375\nsamples = 4\nvalue = [0, 1, 3]", fillcolor="#ab7bee"] ;
3 -> 5 ;
6 [label="gini = 0.0\nsamples = 3\nvalue = [0, 0, 3]", fillcolor="#8139e5"] ;
5 -> 6 ;
7 [label="gini = 0.0\nsamples = 1\nvalue = [0, 1, 0]", fillcolor="#39e581"] ;
5 -> 7 ;
8 [label="X[3] <= 1.75\ngini = 0.05\nsamples = 39\nvalue = [0, 1, 38]", fillcolor="#843ee6"] ;
2 -> 8 ;
9 [label="X[3] <= 1.65\ngini = 0.375\nsamples = 4\nvalue = [0, 1, 3]", fillcolor="#ab7bee"] ;
8 -> 9 ;
10 [label="gini = 0.0\nsamples = 3\nvalue = [0, 0, 3]", fillcolor="#8139e5"] ;
9 -> 10 ;
11 [label="gini = 0.0\nsamples = 1\nvalue = [0, 1, 0]", fillcolor="#39e581"] ;
9 -> 11 ;
12 [label="gini = 0.0\nsamples = 35\nvalue = [0, 0, 35]", fillcolor="#8139e5"] ;
8 -> 12 ;
}